digraph Tree {
node [shape=box, style="filled, rounded", color="black", fontname=helvetica] ;
edge [fontname=helvetica] ;
0 [label="lifetime_risk <= 2.43\nmse = 57718.63\nsamples = 70\nvalue = 195.79", fillcolor="#f9e3d3"] ;
1 [label="private_expenditure <= 64.71\nmse = 9810.17\nsamples = 60\nvalue = 105.78", fillcolor="#fcf1e9"] ;
0 -> 1 [labeldistance=2.5, labelangle=45, headlabel="True"] ;
2 [label="government_expenditure <= 5.0\nmse = 1448.3\nsamples = 50\nvalue = 65.24", fillcolor="#fdf7f2"] ;
1 -> 2 ;
3 [label="year <= 2004.5\nmse = 90.98\nsamples = 30\nvalue = 95.47", fillcolor="#fcf2eb"] ;
2 -> 3 ;
4 [label="private_expenditure <= 48.98\nmse = 58.46\nsamples = 15\nvalue = 102.07", fillcolor="#fcf1ea"] ;
3 -> 4 ;
5 [label="year <= 2002.5\nmse = 22.85\nsamples = 10\nvalue = 106.5", fillcolor="#fcf1e9"] ;
4 -> 5 ;
6 [label="year <= 2001.5\nmse = 7.14\nsamples = 6\nvalue = 109.83", fillcolor="#fcf0e8"] ;
5 -> 6 ;
7 [label="year <= 2000.5\nmse = 2.25\nsamples = 4\nvalue = 111.5", fillcolor="#fcf0e7"] ;
6 -> 7 ;
8 [label="mse = 0.0\nsamples = 2\nvalue = 113.0", fillcolor="#fcf0e7"] ;
7 -> 8 ;
9 [label="mse = 0.0\nsamples = 2\nvalue = 110.0", fillcolor="#fcf0e8"] ;
7 -> 9 ;
10 [label="region_Middle East & North Africa <= 0.5\nmse = 0.25\nsamples = 2\nvalue = 106.5", fillcolor="#fcf1e9"] ;
6 -> 10 ;
11 [label="mse = 0.0\nsamples = 1\nvalue = 106.0", fillcolor="#fcf1e9"] ;
10 -> 11 ;
12 [label="mse = 0.0\nsamples = 1\nvalue = 107.0", fillcolor="#fcf1e8"] ;
10 -> 12 ;
13 [label="private_expenditure <= 31.04\nmse = 4.75\nsamples = 4\nvalue = 101.5", fillcolor="#fcf1ea"] ;
5 -> 13 ;
14 [label="mse = 0.0\nsamples = 1\nvalue = 98.0", fillcolor="#fcf2eb"] ;
13 -> 14 ;
15 [label="lifetime_risk <= 0.33\nmse = 0.89\nsamples = 3\nvalue = 102.67", fillcolor="#fcf1e9"] ;
13 -> 15 ;
16 [label="mse = 0.0\nsamples = 2\nvalue = 102.0", fillcolor="#fcf1ea"] ;
15 -> 16 ;
17 [label="mse = 0.0\nsamples = 1\nvalue = 104.0", fillcolor="#fcf1e9"] ;
15 -> 17 ;
18 [label="lifetime_risk <= 0.26\nmse = 11.76\nsamples = 5\nvalue = 93.2", fillcolor="#fcf3ec"] ;
4 -> 18 ;
19 [label="year <= 2002.5\nmse = 0.89\nsamples = 3\nvalue = 90.67", fillcolor="#fdf3ec"] ;
18 -> 19 ;
20 [label="mse = 0.0\nsamples = 1\nvalue = 92.0", fillcolor="#fdf3ec"] ;
19 -> 20 ;
21 [label="mse = 0.0\nsamples = 2\nvalue = 90.0", fillcolor="#fdf3ec"] ;
19 -> 21 ;
22 [label="lifetime_risk <= 0.28\nmse = 4.0\nsamples = 2\nvalue = 97.0", fillcolor="#fcf2eb"] ;
18 -> 22 ;
23 [label="mse = 0.0\nsamples = 1\nvalue = 95.0", fillcolor="#fcf2eb"] ;
22 -> 23 ;
24 [label="mse = 0.0\nsamples = 1\nvalue = 99.0", fillcolor="#fcf2ea"] ;
22 -> 24 ;
25 [label="lifetime_risk <= 0.26\nmse = 36.38\nsamples = 15\nvalue = 88.87", fillcolor="#fdf3ed"] ;
3 -> 25 ;
26 [label="year <= 2006.5\nmse = 17.24\nsamples = 10\nvalue = 85.6", fillcolor="#fdf4ee"] ;
25 -> 26 ;
27 [label="gdp_capita <= 9318.51\nmse = 7.25\nsamples = 4\nvalue = 89.5", fillcolor="#fdf3ed"] ;
26 -> 27 ;
28 [label="mse = 0.0\nsamples = 1\nvalue = 94.0", fillcolor="#fcf3ec"] ;
27 -> 28 ;
29 [label="private_expenditure <= 42.73\nmse = 0.67\nsamples = 3\nvalue = 88.0", fillcolor="#fdf4ed"] ;
27 -> 29 ;
30 [label="mse = 0.0\nsamples = 1\nvalue = 89.0", fillcolor="#fdf3ed"] ;
29 -> 30 ;
31 [label="mse = 0.25\nsamples = 2\nvalue = 87.5", fillcolor="#fdf4ed"] ;
29 -> 31 ;
32 [label="private_expenditure <= 32.09\nmse = 7.0\nsamples = 6\nvalue = 83.0", fillcolor="#fdf4ee"] ;
26 -> 32 ;
33 [label="year <= 2008.5\nmse = 2.25\nsamples = 2\nvalue = 79.5", fillcolor="#fdf5ef"] ;
32 -> 33 ;
34 [label="mse = 0.0\nsamples = 1\nvalue = 81.0", fillcolor="#fdf5ef"] ;
33 -> 34 ;
35 [label="mse = 0.0\nsamples = 1\nvalue = 78.0", fillcolor="#fdf5ef"] ;
33 -> 35 ;
36 [label="gdp_capita <= 13360.19\nmse = 0.19\nsamples = 4\nvalue = 84.75", fillcolor="#fdf4ee"] ;
32 -> 36 ;
37 [label="mse = 0.0\nsamples = 3\nvalue = 85.0", fillcolor="#fdf4ee"] ;
36 -> 37 ;
38 [label="mse = 0.0\nsamples = 1\nvalue = 84.0", fillcolor="#fdf4ee"] ;
36 -> 38 ;
39 [label="lifetime_risk <= 0.3\nmse = 10.64\nsamples = 5\nvalue = 95.4", fillcolor="#fcf2eb"] ;
25 -> 39 ;
40 [label="year <= 2007.5\nmse = 2.67\nsamples = 3\nvalue = 93.0", fillcolor="#fcf3ec"] ;
39 -> 40 ;
41 [label="mse = 0.0\nsamples = 1\nvalue = 95.0", fillcolor="#fcf2eb"] ;
40 -> 41 ;
42 [label="private_expenditure <= 43.65\nmse = 1.0\nsamples = 2\nvalue = 92.0", fillcolor="#fdf3ec"] ;
40 -> 42 ;
43 [label="mse = 0.0\nsamples = 1\nvalue = 91.0", fillcolor="#fdf3ec"] ;
42 -> 43 ;
44 [label="mse = 0.0\nsamples = 1\nvalue = 93.0", fillcolor="#fcf3ec"] ;
42 -> 44 ;
45 [label="lifetime_risk <= 0.31\nmse = 1.0\nsamples = 2\nvalue = 99.0", fillcolor="#fcf2ea"] ;
39 -> 45 ;
46 [label="mse = 0.0\nsamples = 1\nvalue = 98.0", fillcolor="#fcf2eb"] ;
45 -> 46 ;
47 [label="mse = 0.0\nsamples = 1\nvalue = 100.0", fillcolor="#fcf2ea"] ;
45 -> 47 ;
48 [label="lifetime_risk <= 0.03\nmse = 58.09\nsamples = 20\nvalue = 19.9", fillcolor="#fffefd"] ;
2 -> 48 ;
49 [label="region_North America <= 0.5\nmse = 4.41\nsamples = 11\nvalue = 13.64", fillcolor="#ffffff"] ;
48 -> 49 ;
50 [label="mse = 0.0\nsamples = 1\nvalue = 20.0", fillcolor="#fffefd"] ;
49 -> 50 ;
51 [label="private_expenditure <= 51.55\nmse = 0.4\nsamples = 10\nvalue = 13.0", fillcolor="#ffffff"] ;
49 -> 51 ;
52 [label="mse = 0.0\nsamples = 2\nvalue = 14.0", fillcolor="#ffffff"] ;
51 -> 52 ;
53 [label="government_expenditure <= 6.14\nmse = 0.19\nsamples = 8\nvalue = 12.75", fillcolor="#ffffff"] ;
51 -> 53 ;
54 [label="mse = 0.0\nsamples = 2\nvalue = 12.0", fillcolor="#ffffff"] ;
53 -> 54 ;
55 [label="mse = 0.0\nsamples = 6\nvalue = 13.0", fillcolor="#ffffff"] ;
53 -> 55 ;
56 [label="year <= 2005.5\nmse = 17.14\nsamples = 9\nvalue = 27.56", fillcolor="#fffdfb"] ;
48 -> 56 ;
57 [label="lifetime_risk <= 0.04\nmse = 4.47\nsamples = 6\nvalue = 30.17", fillcolor="#fefcfb"] ;
56 -> 57 ;
58 [label="gdp_capita <= 24938.63\nmse = 0.25\nsamples = 2\nvalue = 27.5", fillcolor="#fffdfb"] ;
57 -> 58 ;
59 [label="mse = 0.0\nsamples = 1\nvalue = 28.0", fillcolor="#fffdfb"] ;
58 -> 59 ;
60 [label="mse = 0.0\nsamples = 1\nvalue = 27.0", fillcolor="#fffdfb"] ;
58 -> 60 ;
61 [label="gdp_capita <= 22952.88\nmse = 1.25\nsamples = 4\nvalue = 31.5", fillcolor="#fefcfa"] ;
57 -> 61 ;
62 [label="private_expenditure <= 24.43\nmse = 0.25\nsamples = 2\nvalue = 32.5", fillcolor="#fefcfa"] ;
61 -> 62 ;
63 [label="mse = 0.0\nsamples = 1\nvalue = 32.0", fillcolor="#fefcfa"] ;
62 -> 63 ;
64 [label="mse = 0.0\nsamples = 1\nvalue = 33.0", fillcolor="#fefcfa"] ;
62 -> 64 ;
65 [label="private_expenditure <= 24.27\nmse = 0.25\nsamples = 2\nvalue = 30.5", fillcolor="#fefcfb"] ;
61 -> 65 ;
66 [label="mse = 0.0\nsamples = 1\nvalue = 31.0", fillcolor="#fefcfa"] ;
65 -> 66 ;
67 [label="mse = 0.0\nsamples = 1\nvalue = 30.0", fillcolor="#fefcfb"] ;
65 -> 67 ;
68 [label="year <= 2006.5\nmse = 1.56\nsamples = 3\nvalue = 22.33", fillcolor="#fffdfd"] ;
56 -> 68 ;
69 [label="mse = 0.0\nsamples = 1\nvalue = 24.0", fillcolor="#fffdfc"] ;
68 -> 69 ;
70 [label="government_expenditure <= 6.34\nmse = 0.25\nsamples = 2\nvalue = 21.5", fillcolor="#fffefd"] ;
68 -> 70 ;
71 [label="mse = 0.0\nsamples = 1\nvalue = 22.0", fillcolor="#fffdfd"] ;
70 -> 71 ;
72 [label="mse = 0.0\nsamples = 1\nvalue = 21.0", fillcolor="#fffefd"] ;
70 -> 72 ;
73 [label="lifetime_risk <= 1.03\nmse = 2306.65\nsamples = 10\nvalue = 308.5", fillcolor="#f6d2b9"] ;
1 -> 73 ;
74 [label="lifetime_risk <= 0.89\nmse = 409.84\nsamples = 5\nvalue = 266.6", fillcolor="#f7d9c3"] ;
73 -> 74 ;
75 [label="gdp_capita <= 3629.03\nmse = 112.67\nsamples = 3\nvalue = 252.0", fillcolor="#f8dbc6"] ;
74 -> 75 ;
76 [label="mse = 0.0\nsamples = 1\nvalue = 265.0", fillcolor="#f7d9c3"] ;
75 -> 76 ;
77 [label="gdp_capita <= 3778.89\nmse = 42.25\nsamples = 2\nvalue = 245.5", fillcolor="#f8dcc8"] ;
75 -> 77 ;
78 [label="mse = 0.0\nsamples = 1\nvalue = 252.0", fillcolor="#f8dbc6"] ;
77 -> 78 ;
79 [label="mse = 0.0\nsamples = 1\nvalue = 239.0", fillcolor="#f8ddc9"] ;
77 -> 79 ;
80 [label="private_expenditure <= 76.47\nmse = 56.25\nsamples = 2\nvalue = 288.5", fillcolor="#f6d5bd"] ;
74 -> 80 ;
81 [label="mse = 0.0\nsamples = 1\nvalue = 296.0", fillcolor="#f6d4bc"] ;
80 -> 81 ;
82 [label="mse = 0.0\nsamples = 1\nvalue = 281.0", fillcolor="#f7d6bf"] ;
80 -> 82 ;
83 [label="gdp_capita <= 2603.9\nmse = 692.24\nsamples = 5\nvalue = 350.4", fillcolor="#f4ccaf"] ;
73 -> 83 ;
84 [label="private_expenditure <= 74.71\nmse = 90.25\nsamples = 2\nvalue = 378.5", fillcolor="#f4c8a8"] ;
83 -> 84 ;
85 [label="mse = 0.0\nsamples = 1\nvalue = 388.0", fillcolor="#f3c6a6"] ;
84 -> 85 ;
86 [label="mse = 0.0\nsamples = 1\nvalue = 369.0", fillcolor="#f4c9aa"] ;
84 -> 86 ;
87 [label="gdp_capita <= 2697.78\nmse = 216.22\nsamples = 3\nvalue = 331.67", fillcolor="#f5cfb3"] ;
83 -> 87 ;
88 [label="mse = 0.0\nsamples = 1\nvalue = 350.0", fillcolor="#f4ccaf"] ;
87 -> 88 ;
89 [label="government_expenditure <= 0.74\nmse = 72.25\nsamples = 2\nvalue = 322.5", fillcolor="#f5d0b5"] ;
87 -> 89 ;
90 [label="mse = 0.0\nsamples = 1\nvalue = 314.0", fillcolor="#f6d1b7"] ;
89 -> 90 ;
91 [label="mse = 0.0\nsamples = 1\nvalue = 331.0", fillcolor="#f5cfb3"] ;
89 -> 91 ;
92 [label="year <= 2004.5\nmse = 4951.36\nsamples = 10\nvalue = 735.8", fillcolor="#e89253"] ;
0 -> 92 [labeldistance=2.5, labelangle=-45, headlabel="False"] ;
93 [label="lifetime_risk <= 4.31\nmse = 1338.96\nsamples = 5\nvalue = 798.2", fillcolor="#e68844"] ;
92 -> 93 ;
94 [label="lifetime_risk <= 4.13\nmse = 210.25\nsamples = 2\nvalue = 758.5", fillcolor="#e88e4e"] ;
93 -> 94 ;
95 [label="mse = 0.0\nsamples = 1\nvalue = 744.0", fillcolor="#e89051"] ;
94 -> 95 ;
96 [label="mse = 0.0\nsamples = 1\nvalue = 773.0", fillcolor="#e78c4a"] ;
94 -> 96 ;
97 [label="lifetime_risk <= 4.49\nmse = 340.22\nsamples = 3\nvalue = 824.67", fillcolor="#e6843e"] ;
93 -> 97 ;
98 [label="mse = 0.0\nsamples = 1\nvalue = 801.0", fillcolor="#e68844"] ;
97 -> 98 ;
99 [label="gdp_capita <= 2396.18\nmse = 90.25\nsamples = 2\nvalue = 836.5", fillcolor="#e5823b"] ;
97 -> 99 ;
100 [label="mse = 0.0\nsamples = 1\nvalue = 846.0", fillcolor="#e58139"] ;
99 -> 100 ;
101 [label="mse = 0.0\nsamples = 1\nvalue = 827.0", fillcolor="#e6843e"] ;
99 -> 101 ;
102 [label="gdp_capita <= 2978.08\nmse = 776.24\nsamples = 5\nvalue = 673.4", fillcolor="#ea9b62"] ;
92 -> 102 ;
103 [label="year <= 2005.5\nmse = 196.0\nsamples = 2\nvalue = 703.0", fillcolor="#e9975b"] ;
102 -> 103 ;
104 [label="mse = 0.0\nsamples = 1\nvalue = 717.0", fillcolor="#e99458"] ;
103 -> 104 ;
105 [label="mse = 0.0\nsamples = 1\nvalue = 689.0", fillcolor="#ea995e"] ;
103 -> 105 ;
106 [label="gdp_capita <= 3081.2\nmse = 189.56\nsamples = 3\nvalue = 653.67", fillcolor="#eb9e67"] ;
102 -> 106 ;
107 [label="mse = 0.0\nsamples = 1\nvalue = 673.0", fillcolor="#ea9b62"] ;
106 -> 107 ;
108 [label="government_expenditure <= 1.85\nmse = 4.0\nsamples = 2\nvalue = 644.0", fillcolor="#eba069"] ;
106 -> 108 ;
109 [label="mse = 0.0\nsamples = 1\nvalue = 646.0", fillcolor="#eb9f68"] ;
108 -> 109 ;
110 [label="mse = 0.0\nsamples = 1\nvalue = 642.0", fillcolor="#eba069"] ;
108 -> 110 ;
}